Version 7.2.0
Min label:-50.000000
Max label:50.000000
bits:24
0 pairs: 
0 triples: 
rank:0
lda:0
ngram:0
skips:0
options:
:0
9975162:-0.000000
9975164:-0.000000
9975165:-0.000002
9975168:-0.000000
9975169:-0.000001
9975172:-0.000000
9975173:-0.000000
9975174:-0.000000
9975176:-0.000000
9975177:-0.000000
9975178:0.000000
9975179:-0.000000
9975180:-0.000000
9975181:-0.000000
9975182:0.000000
9975183:0.000018
9975184:-0.000000
9975185:-0.000000
9975189:-0.000000
9975190:-0.000000
9975192:-0.000000
9975193:-0.000001
9975194:0.000000
9975198:0.000000
9975201:-0.000001
9975208:-0.000000
9975209:0.000000
9975210:-0.000000
9975211:-0.000000
9975213:0.000000
9975214:0.000035
9975218:-0.000001
9975220:0.000043
9975222:0.000064
9975224:-0.000000
9975226:-0.000000
9975228:0.000000
9975229:0.000000
9975232:-0.000000
9975233:-0.000000
9975238:0.000000
9975241:-0.000000
9975244:0.000000
9975245:0.000000
9975246:0.000000
9975249:-0.000000
9975251:-0.000000
9975254:0.000000
9975257:-0.000000
9975266:0.000000
9975276:-0.000000
9975280:-0.000000
9975284:0.000038
9975287:-0.000000
9975290:-0.000000
9975297:-0.000001
9975299:0.000000
9975300:-0.000000
9975303:-0.000000
9975305:-0.000000
9975310:0.000000
9975315:-0.000000
9975320:-0.000000
9975324:0.000138
9975325:-0.000000
9975326:-0.000000
9975328:-0.000000
9975329:0.000000
9975334:-0.000000
9975338:0.000000
9975340:0.000035
9975341:-0.000000
9975342:0.000052
9975346:-0.000000
9975347:0.000030
9975348:-0.000000
9975350:-0.000000
9975352:-0.000000
9975356:0.000000
9975358:-0.000000
9975367:0.000000
9975368:-0.000001
9975369:-0.000000
9975372:0.000055
9975376:0.000040
9975377:-0.000000
9975378:-0.000001
9975380:-0.000000
9975381:-0.000000
9975382:-0.000000
9975383:0.000000
9975384:-0.000001
9975388:0.000050
9975389:0.000000
9975390:-0.000000
9975391:-0.000000
9975392:-0.000000
9975393:0.000000
9975395:0.000056
9975398:0.000055
9975399:0.000000
9975405:-0.000001
9975406:-0.000000
9975408:0.000000
9975411:-0.000000
9975412:-0.000000
9975416:-0.000000
9975417:-0.000000
9975423:-0.000000
9975424:-0.000000
9975426:-0.000000
9975428:0.000054
9975430:-0.000000
9975433:-0.000000
9975435:-0.000000
9975436:0.000020
9975439:0.000000
9975442:0.000044
9975443:0.000000
9975445:-0.000000
9975447:-0.000000
9975449:-0.000001
9975450:0.000000
9975452:0.000028
9975454:-0.000000
9975455:0.000000
9975456:-0.000000
9975457:-0.000000
9975461:0.000000
9975465:-0.000000
9975466:-0.000000
9975467:-0.000002
9975471:0.000000
9975474:0.000000
9975475:0.000000
9975477:0.000000
9975480:-0.000000
9975481:0.000065
9975482:0.000000
9975485:0.000000
9975486:0.000000
9975495:-0.000000
9975497:0.000000
9975498:-0.000000
9975501:-0.000000
9975503:-0.000000
9975505:-0.000000
9975507:-0.000000
9975511:-0.000000
9975512:0.000000
9975513:-0.000000
9975519:-0.000000
9975523:-0.000000
9975527:-0.000001
9975539:-0.000000
9975540:-0.000000
9975545:0.000045
9975546:0.000000
9975547:-0.000000
9975548:-0.000001
9975549:0.000000
9975553:0.000000
9975576:0.000023
9975578:-0.000000
9975581:-0.000000
9975585:-0.000000
9975587:-0.000000
9975593:0.000000
9975596:0.000000
9975597:-0.000000
9975610:0.000000
9975612:0.000000
9975620:-0.000000
9975623:-0.000000
9975627:-0.000000
9975633:-0.000000
9975643:-0.000000
9975644:-0.000000
9975647:0.000000
9975648:-0.000001
9975652:-0.000001
9975653:0.000000
9975665:-0.000000
9975673:-0.000000
9975675:-0.000001
9975676:-0.000000
9975677:-0.000000
9975683:-0.000000
9975685:-0.000000
9975692:-0.000000
9975694:0.000000
9975706:-0.000000
9975709:-0.000001
9975719:-0.000000
9975720:0.000092
9975723:-0.000000
9975732:0.000000
9975734:-0.000000
9975735:-0.000000
9975737:-0.000000
9975740:-0.000001
9975742:-0.000000
9975743:-0.000000
9975744:-0.000000
9975745:-0.000000
9975746:-0.000000
9975764:-0.000000
9975766:0.000000
9975772:0.000000
9975776:0.000000
9975777:-0.000000
9975782:0.000000
9975783:0.000000
9975784:-0.000000
9975785:0.000000
9975786:-0.000001
9975789:-0.000001
9975790:-0.000000
9975792:0.000000
9975803:-0.000000
9975804:0.000058
9975805:-0.000000
9975806:0.000074
9975812:-0.000000
9975814:-0.000000
9975819:-0.000000
9975820:-0.000006
9975823:0.000000
9975834:-0.000000
9975837:0.000000
9975838:-0.000000
9975840:0.000077
9975843:0.000000
9975845:-0.000001
9975849:-0.000000
9975852:-0.000000
9975855:-0.000000
9975861:-0.000000
9975867:-0.000000
9975885:0.000062
9975899:0.000120
9975903:-0.000000
9975916:0.000000
9975924:-0.000000
9975928:-0.000000
9975937:-0.000000
9975943:0.000000
9975948:0.000000
9975961:0.000023
9975970:0.000062
9975971:0.000000
9975973:-0.000000
9975996:-0.000000
9975997:0.000000
9976000:0.000000
9976001:-0.000000
9976003:0.000000
9976004:-0.000000
9976007:-0.000000
9976017:0.000000
9976024:-0.000000
9976025:-0.000000
9976030:0.000000
9976035:0.000000
9976036:0.000000
9976038:-0.000000
9976045:0.000000
9976048:0.000000
9976057:0.000063
9976067:-0.000000
9976070:-0.000000
9976085:-0.000000
9976086:-0.000001
9976089:-0.000000
9976092:-0.000000
9976096:-0.000001
9976104:-0.000000
9976105:-0.000001
9976111:0.000000
9976113:0.000000
9976122:-0.000001
9976147:-0.000000
9976148:-0.000002
9976153:0.000000
9976154:0.000000
9976159:-0.000001
9976162:0.000000
9976164:-0.000000
9976171:-0.000000
9976172:0.000033
9976181:-0.000000
9976187:-0.000000
9976191:-0.000000
9976192:-0.000000
9976195:-0.000000
9976196:-0.000000
9976199:-0.000000
9976201:-0.000000
9976204:-0.000000
9976215:0.000000
9976218:-0.000000
9976220:-0.000000
9976225:0.000143
9976230:-0.000000
9976232:-0.000000
9976234:0.000000
9976243:0.000000
9976252:0.000000
9976258:-0.000000
9976261:0.000055
9976274:0.000000
9976281:0.000000
9976282:-0.000000
9976286:0.000040
9976291:-0.000000
9976302:-0.000000
9976304:-0.000000
9976315:-0.000000
9976327:-0.000000
9976332:-0.000000
9976348:-0.000000
9976352:0.000000
9976371:-0.000000
9976372:-0.000000
9976374:-0.000000
9976377:-0.000000
9976381:0.000000
9976396:-0.000000
9976399:0.000000
9976402:-0.000000
9976409:0.000000
9976422:-0.000000
9976425:-0.000000
9976428:-0.000000
9976439:-0.000000
9976441:-0.000001
9976457:-0.000001
9976463:-0.000000
9976464:0.000000
9976466:0.000000
9976467:-0.000000
9976471:0.000000
9976475:0.000000
9976498:0.000000
9976501:-0.000000
9976504:0.000000
9976511:-0.000000
9976525:0.000000
9976530:-0.000000
9976531:0.000127
9976532:-0.000000
9976534:-0.000000
9976538:-0.000000
9976556:-0.000000
9976557:-0.000000
9976558:-0.000000
9976570:-0.000000
9976579:-0.000000
9976580:-0.000000
9976581:0.000000
9976584:-0.000000
9976585:-0.000000
9976586:-0.000000
9976593:-0.000001
9976608:-0.000000
9976611:0.000000
9976613:0.000000
9976614:0.000059
9976625:0.000000
9976627:-0.000000
9976645:-0.000002
9976647:0.000000
9976654:0.000000
9976657:0.000000
9976668:-0.000001
9976670:0.000000
9976681:-0.000003
9976683:-0.000002
9976686:-0.000002
9976694:0.000142
9976696:-0.000000
9976697:-0.000000
9976703:-0.000000
9976705:-0.000000
9976713:-0.000000
9976715:-0.000001
9976718:-0.000000
9976725:-0.000000
9976726:-0.000000
9976735:-0.000000
9976739:-0.000000
9976746:-0.000000
9976761:-0.000000
9976762:-0.000001
9976774:0.000137
9976782:-0.000000
9976788:-0.000000
9976804:-0.000000
9976813:0.000000
9976825:0.000000
9976829:-0.000000
9976833:-0.000000
9976849:-0.000000
9976866:-0.000003
9976880:0.000000
9976882:-0.000000
9976886:0.000000
9976914:0.000067
9976915:-0.000000
9976927:0.000000
9976932:0.000000
9976935:-0.000000
9976936:-0.000002
9976944:0.000000
9976947:-0.000000
9976962:-0.000000
9976963:-0.000000
9976969:0.000112
9976981:-0.000001
9976992:-0.000000
9977016:-0.000000
9977024:-0.000000
9977027:0.000000
9977061:-0.000000
9977076:-0.000000
9977096:-0.000000
9977098:-0.000000
9977125:-0.000000
9977127:-0.000000
9977140:-0.000000
9977141:0.000134
9977145:-0.000000
9977146:-0.000000
9977169:-0.000000
9977176:-0.000001
9977183:-0.000000
9977187:-0.000000
9977235:-0.000000
9977239:0.000000
9977247:0.000026
9977249:0.000000
9977253:-0.000000
9977256:-0.000000
9977266:0.000072
9977287:-0.000000
9977294:-0.000000
9977295:0.000000
9977298:-0.000000
9977306:-0.000000
9977308:-0.000000
9977312:0.000000
9977325:0.000073
9977333:-0.000000
9977336:-0.000004
9977338:-0.000000
9977341:-0.000001
9977373:-0.000000
9977385:-0.000001
9977393:-0.000000
9977403:-0.000001
9977427:-0.000000
9977428:0.000000
9977447:-0.000000
9977457:0.000041
9977506:0.000000
9977509:0.000000
9977518:-0.000002
9977519:0.000000
9977521:-0.000000
9977526:-0.000000
9977530:0.000000
9977535:-0.000000
9977537:0.000163
9977539:-0.000001
9977563:-0.000000
9977568:-0.000001
9977578:-0.000004
9977583:0.000000
9977592:-0.000000
9977597:0.000000
9977605:0.000000
9977614:-0.000000
9977624:-0.000001
9977649:0.000000
9977652:0.000000
9977665:-0.000000
9977674:-0.000000
9977680:0.000000
9977692:-0.000000
9977694:-0.000000
9977705:-0.000000
9977707:0.000102
9977718:0.000000
9977731:-0.000000
9977738:-0.000000
9977743:-0.000002
9977747:-0.000005
9977762:0.000000
9977763:-0.000001
9977764:-0.000001
9977808:-0.000000
9977809:-0.000000
9977819:-0.000001
9977837:-0.000002
9977890:0.000000
9977893:-0.000000
9977911:0.000000
9977918:-0.000000
9977919:-0.000001
9977939:-0.000000
9977952:-0.000002
9977993:-0.000001
9978001:-0.000000
9978010:-0.000002
9978028:-0.000000
9978039:0.000086
9978052:-0.000000
9978082:0.000000
9978097:0.000000
9978145:-0.000002
9978147:-0.000000
9978169:-0.000000
9978179:-0.000003
9978198:-0.000003
9978227:-0.000000
9978255:-0.000000
9978347:-0.000000
9978382:0.000000
9978399:-0.000000
9978420:-0.000001
9978437:-0.000005
9978484:-0.000002
9978490:-0.000000
9978526:-0.000004
9978553:-0.000000
9978563:-0.000000
9978715:-0.000000
9978756:-0.000000
9978774:0.000000
9978824:-0.000000
9978828:0.000000
9978886:-0.000000
9978900:-0.000000
9978931:-0.000000
9979002:-0.000001
9979003:-0.000000
9979004:-0.000001
9979013:0.000000
9979042:-0.000000
9979057:0.000000
9979058:-0.000000
9979096:-0.000001
9979125:0.000000
9979156:-0.000001
9979161:-0.000000
9979162:0.000044
9979178:0.000000
9979234:-0.000000
9979309:0.000000
9979352:-0.000000
9979362:-0.000000
9979384:-0.000000
9979400:-0.000000
9979401:-0.000000
9979429:0.000000
9979433:-0.000000
9979435:-0.000000
9979496:-0.000000
9979505:0.000025
9979536:0.000000
9979564:-0.000000
9979587:-0.000000
9979664:0.000060
9979666:-0.000000
9979680:0.000099
9979709:-0.000000
9979800:-0.000000
9979819:-0.000000
9979856:-0.000000
9980078:-0.000000
9980121:0.000000
9980135:0.000000
9980148:-0.000000
9980179:-0.000000
9980244:-0.000000
9980247:-0.000000
9980249:-0.000000
9980252:-0.000000
9980382:-0.000002
9980391:-0.000000
9980393:-0.000000
9980454:-0.000000
9980583:0.000000
9980887:-0.000000
9980897:-0.000000
9980904:-0.000000
9980951:0.000000
9980991:0.000000
9981117:-0.000000
9981143:0.000000
9981146:0.000000
9981165:0.000000
9981222:-0.000000
9981279:0.000102
9981295:0.000000
9981315:0.000000
9981318:-0.000001
9981346:-0.000000
9981535:-0.000000
9981666:0.000000
9981735:-0.000000
9981736:0.000000
9981807:-0.000004
9981853:0.000000
9981858:-0.000000
9981865:-0.000000
9981880:0.000000
9982017:0.000000
9982042:-0.000004
9982068:-0.000000
9982557:-0.000000
9982636:-0.000000
9982659:0.000000
9982670:-0.000001
9982697:0.000000
9982855:-0.000000
9982859:-0.000000
9982862:0.000000
9982902:-0.000000
9983025:-0.000000
9983067:-0.000004
9983090:-0.000000
9983143:-0.000000
9983185:0.000114
9983206:-0.000000
9983210:-0.000000
9983282:-0.000000
9983289:-0.000000
9983330:0.000000
9983396:-0.000000
9983401:-0.000000
9983495:0.000000
9983501:-0.000000
9983530:-0.000004
9983564:-0.000004
9983695:0.000000
9983697:-0.000000
9983723:-0.000000
9983875:-0.000000
9983896:-0.000000
9983897:-0.000000
9983946:0.000000
9984048:-0.000004
9984946:-0.000000
9985025:-0.000000
9985137:0.000000
9985339:-0.000000
9985521:-0.000003
9985576:-0.000000
9985647:-0.000004
9985684:0.000000
9986099:-0.000000
9986222:-0.000000
9986299:-0.000000
9986608:0.000000
9986638:-0.000001
9986640:-0.000000
9986946:-0.000000
9986963:0.000000
9987268:0.000000
9987349:-0.000000
9987364:0.000000
9987369:0.000000
9987947:0.000000
9988488:-0.000002
9988674:-0.000000
9988891:-0.000000
9988986:0.000000
9989137:0.000000
9989139:-0.000000
9989902:-0.000000
9990017:-0.000000
9990215:-0.000000
9990296:-0.000000
9990314:-0.000000
9990737:-0.000002
9990740:-0.000000
9990824:-0.000000
9991276:-0.000000
9991776:-0.000000
9991975:-0.000000
9991979:-0.000000
9992225:-0.000000
9992771:-0.000000
9992938:-0.000000
9993432:-0.000000
9993718:-0.000000
9993764:-0.000000
9993769:-0.000000
9993771:-0.000000
9993772:-0.000000
9993774:-0.000000
9993901:-0.000000
9993944:0.000000
9994494:-0.000000
9995817:-0.000000
9995933:0.000000
9996137:0.000000
9996807:-0.000000
9997103:-0.000000
9997473:-0.000003
9997523:0.000000
9997548:-0.000000
9997944:-0.000001
9998387:-0.000001
9998388:-0.000003
9999029:-0.000000
9999284:-0.000000
10000344:-0.000000
10001095:0.000000
10001117:-0.000000
10002815:-0.000000
10003160:0.000000
10004164:-0.000000
10005444:-0.000000
10006075:0.000000
10006365:-0.000000
10006436:-0.000000
10007882:-0.000000
10008369:-0.000000
10009427:-0.000003
10009787:-0.000000
10010100:-0.000000
10019354:-0.000000
10021315:0.000000
10022116:-0.000000
11650396:0.000002
11917489:0.000150
